digraph Tree {
node [shape=box] ;
0 [label="X[2] <= 0.5\nentropy = 0.957\nsamples = 364\nvalue = [138, 226]"] ;
1 [label="X[1] <= 0.5\nentropy = 0.872\nsamples = 181\nvalue = [128, 53]"] ;
0 -> 1 [labeldistance=2.5, labelangle=45, headlabel="True"] ;
2 [label="entropy = 0.903\nsamples = 47\nvalue = [15, 32]"] ;
1 -> 2 ;
3 [label="X[3] <= 0.5\nentropy = 0.626\nsamples = 134\nvalue = [113, 21]"] ;
1 -> 3 ;
4 [label="X[10] <= 0.5\nentropy = 0.364\nsamples = 115\nvalue = [107, 8]"] ;
3 -> 4 ;
5 [label="X[11] <= 0.5\nentropy = 0.189\nsamples = 104\nvalue = [101, 3]"] ;
4 -> 5 ;
6 [label="entropy = 0.0\nsamples = 63\nvalue = [63, 0]"] ;
5 -> 6 ;
7 [label="entropy = 0.378\nsamples = 41\nvalue = [38, 3]"] ;
5 -> 7 ;
8 [label="entropy = 0.994\nsamples = 11\nvalue = [6, 5]"] ;
4 -> 8 ;
9 [label="entropy = 0.9\nsamples = 19\nvalue = [6, 13]"] ;
3 -> 9 ;
10 [label="X[3] <= 0.5\nentropy = 0.306\nsamples = 183\nvalue = [10, 173]"] ;
0 -> 10 [labeldistance=2.5, labelangle=-45, headlabel="False"] ;
11 [label="entropy = 0.764\nsamples = 45\nvalue = [10, 35]"] ;
10 -> 11 ;
12 [label="entropy = 0.0\nsamples = 138\nvalue = [0, 138]"] ;
10 -> 12 ;
}